digraph Tree {
node [shape=box, style="filled, rounded", color="black", fontname="helvetica"] ;
edge [fontname="helvetica"] ;
0 [label="alcohol <= 10.525\nentropy = 1.687\nsamples = 1279\nvalue = [8, 37, 541, 519, 162, 12]", fillcolor="#f9fefb"] ;
1 [label="sulphates <= 0.535\nentropy = 1.379\nsamples = 792\nvalue = [5, 23, 459, 272, 32, 1]", fillcolor="#b8f6d2"] ;
0 -> 1 [labeldistance=2.5, labelangle=45, headlabel="True"] ;
2 [label="volatile acidity <= 0.873\nentropy = 1.025\nsamples = 190\nvalue = [1, 11, 147, 30, 1, 0]", fillcolor="#6eeca3"] ;
1 -> 2 ;
3 [label="alcohol <= 9.533\nentropy = 0.944\nsamples = 174\nvalue = [0, 7, 136, 30, 1, 0]", fillcolor="#6deca2"] ;
2 -> 3 ;
4 [label="volatile acidity <= 0.31\nentropy = 0.656\nsamples = 89\nvalue = [0, 4, 78, 7, 0, 0]", fillcolor="#54e892"] ;
3 -> 4 ;
5 [label="entropy = 1.5\nsamples = 4\nvalue = [0, 1, 1, 2, 0, 0]", fillcolor="#bddef6"] ;
4 -> 5 ;
6 [label="entropy = 0.54\nsamples = 85\nvalue = [0, 3, 77, 5, 0, 0]", fillcolor="#4de88e"] ;
4 -> 6 ;
7 [label="density <= 0.995\nentropy = 1.132\nsamples = 85\nvalue = [0, 3, 58, 23, 1, 0]", fillcolor="#8ff0b8"] ;
3 -> 7 ;
8 [label="entropy = 0.773\nsamples = 13\nvalue = [0, 1, 11, 0, 1, 0]", fillcolor="#5ae996"] ;
7 -> 8 ;
9 [label="entropy = 1.071\nsamples = 72\nvalue = [0, 2, 47, 23, 0, 0]", fillcolor="#9ef2c1"] ;
7 -> 9 ;
10 [label="fixed acidity <= 7.15\nentropy = 1.122\nsamples = 16\nvalue = [1, 4, 11, 0, 0, 0]", fillcolor="#8cf0b6"] ;
2 -> 10 ;
11 [label="total sulfur dioxide <= 16.5\nentropy = 0.918\nsamples = 3\nvalue = [1, 2, 0, 0, 0, 0]", fillcolor="#cef29c"] ;
10 -> 11 ;
12 [label="entropy = 0.0\nsamples = 1\nvalue = [1, 0, 0, 0, 0, 0]", fillcolor="#e58139"] ;
11 -> 12 ;
13 [label="entropy = 0.0\nsamples = 2\nvalue = [0, 2, 0, 0, 0, 0]", fillcolor="#9de539"] ;
11 -> 13 ;
14 [label="free sulfur dioxide <= 9.0\nentropy = 0.619\nsamples = 13\nvalue = [0, 2, 11, 0, 0, 0]", fillcolor="#5dea98"] ;
10 -> 14 ;
15 [label="entropy = 1.0\nsamples = 4\nvalue = [0, 2, 2, 0, 0, 0]", fillcolor="#ffffff"] ;
14 -> 15 ;
16 [label="entropy = 0.0\nsamples = 9\nvalue = [0, 0, 9, 0, 0, 0]", fillcolor="#39e581"] ;
14 -> 16 ;
17 [label="alcohol <= 9.85\nentropy = 1.416\nsamples = 602\nvalue = [4, 12, 312, 242, 31, 1]", fillcolor="#d8fae6"] ;
1 -> 17 ;
18 [label="total sulfur dioxide <= 105.5\nentropy = 1.21\nsamples = 374\nvalue = [3, 6, 229, 130, 6, 0]", fillcolor="#aff4cc"] ;
17 -> 18 ;
19 [label="fixed acidity <= 10.05\nentropy = 1.25\nsamples = 332\nvalue = [3, 5, 189, 129, 6, 0]", fillcolor="#c4f7da"] ;
18 -> 19 ;
20 [label="entropy = 1.145\nsamples = 286\nvalue = [1, 3, 176, 102, 4, 0]", fillcolor="#aff5cc"] ;
19 -> 20 ;
21 [label="entropy = 1.556\nsamples = 46\nvalue = [2, 2, 13, 27, 2, 0]", fillcolor="#abd5f4"] ;
19 -> 21 ;
22 [label="residual sugar <= 1.65\nentropy = 0.324\nsamples = 42\nvalue = [0, 1, 40, 1, 0, 0]", fillcolor="#43e687"] ;
18 -> 22 ;
23 [label="entropy = 0.0\nsamples = 1\nvalue = [0, 1, 0, 0, 0, 0]", fillcolor="#9de539"] ;
22 -> 23 ;
24 [label="entropy = 0.165\nsamples = 41\nvalue = [0, 0, 40, 1, 0, 0]", fillcolor="#3ee684"] ;
22 -> 24 ;
25 [label="pH <= 3.425\nentropy = 1.591\nsamples = 228\nvalue = [1, 6, 83, 112, 25, 1]", fillcolor="#d7ebfa"] ;
17 -> 25 ;
26 [label="total sulfur dioxide <= 56.0\nentropy = 1.534\nsamples = 186\nvalue = [0, 4, 57, 101, 23, 1]", fillcolor="#bbdef6"] ;
25 -> 26 ;
27 [label="entropy = 1.629\nsamples = 136\nvalue = [0, 4, 36, 72, 23, 1]", fillcolor="#b8dcf6"] ;
26 -> 27 ;
28 [label="entropy = 0.981\nsamples = 50\nvalue = [0, 0, 21, 29, 0, 0]", fillcolor="#c8e4f8"] ;
26 -> 28 ;
29 [label="sulphates <= 0.815\nentropy = 1.481\nsamples = 42\nvalue = [1, 2, 26, 11, 2, 0]", fillcolor="#9ff2c2"] ;
25 -> 29 ;
30 [label="entropy = 1.321\nsamples = 37\nvalue = [1, 2, 26, 7, 1, 0]", fillcolor="#82efaf"] ;
29 -> 30 ;
31 [label="entropy = 0.722\nsamples = 5\nvalue = [0, 0, 0, 4, 1, 0]", fillcolor="#6ab6ec"] ;
29 -> 31 ;
32 [label="sulphates <= 0.615\nentropy = 1.754\nsamples = 487\nvalue = [3, 14, 82, 247, 130, 11]", fillcolor="#bedff6"] ;
0 -> 32 [labeldistance=2.5, labelangle=-45, headlabel="False"] ;
33 [label="volatile acidity <= 1.015\nentropy = 1.686\nsamples = 173\nvalue = [3, 10, 51, 91, 18, 0]", fillcolor="#bedff6"] ;
32 -> 33 ;
34 [label="volatile acidity <= 0.515\nentropy = 1.517\nsamples = 164\nvalue = [0, 6, 49, 91, 18, 0]", fillcolor="#b7dbf6"] ;
33 -> 34 ;
35 [label="pH <= 3.265\nentropy = 1.437\nsamples = 75\nvalue = [0, 3, 10, 48, 14, 0]", fillcolor="#91c8f1"] ;
34 -> 35 ;
36 [label="entropy = 1.45\nsamples = 33\nvalue = [0, 0, 5, 16, 12, 0]", fillcolor="#d9ecfa"] ;
35 -> 36 ;
37 [label="entropy = 1.146\nsamples = 42\nvalue = [0, 3, 5, 32, 2, 0]", fillcolor="#6fb7ec"] ;
35 -> 37 ;
38 [label="free sulfur dioxide <= 8.5\nentropy = 1.395\nsamples = 89\nvalue = [0, 3, 39, 43, 4, 0]", fillcolor="#eff7fd"] ;
34 -> 38 ;
39 [label="entropy = 0.889\nsamples = 28\nvalue = [0, 1, 22, 5, 0, 0]", fillcolor="#6deca2"] ;
38 -> 39 ;
40 [label="entropy = 1.358\nsamples = 61\nvalue = [0, 2, 17, 38, 4, 0]", fillcolor="#a0d0f3"] ;
38 -> 40 ;
41 [label="free sulfur dioxide <= 4.0\nentropy = 1.53\nsamples = 9\nvalue = [3, 4, 2, 0, 0, 0]", fillcolor="#effbde"] ;
33 -> 41 ;
42 [label="entropy = 0.0\nsamples = 2\nvalue = [0, 0, 2, 0, 0, 0]", fillcolor="#39e581"] ;
41 -> 42 ;
43 [label="sulphates <= 0.545\nentropy = 0.985\nsamples = 7\nvalue = [3, 4, 0, 0, 0, 0]", fillcolor="#e6f8ce"] ;
41 -> 43 ;
44 [label="entropy = 0.811\nsamples = 4\nvalue = [3, 1, 0, 0, 0, 0]", fillcolor="#eeab7b"] ;
43 -> 44 ;
45 [label="entropy = 0.0\nsamples = 3\nvalue = [0, 3, 0, 0, 0, 0]", fillcolor="#9de539"] ;
43 -> 45 ;
46 [label="alcohol <= 11.55\nentropy = 1.611\nsamples = 314\nvalue = [0, 4, 31, 156, 112, 11]", fillcolor="#d4eaf9"] ;
32 -> 46 ;
47 [label="volatile acidity <= 0.395\nentropy = 1.559\nsamples = 184\nvalue = [0, 4, 27, 105, 46, 2]", fillcolor="#aad5f4"] ;
46 -> 47 ;
48 [label="pH <= 3.265\nentropy = 1.57\nsamples = 82\nvalue = [0, 0, 11, 35, 34, 2]", fillcolor="#fbfdfe"] ;
47 -> 48 ;
49 [label="entropy = 1.167\nsamples = 36\nvalue = [0, 0, 0, 11, 23, 2]", fillcolor="#c3a0f3"] ;
48 -> 49 ;
50 [label="entropy = 1.477\nsamples = 46\nvalue = [0, 0, 11, 24, 11, 0]", fillcolor="#b5dbf5"] ;
48 -> 50 ;
51 [label="sulphates <= 0.675\nentropy = 1.338\nsamples = 102\nvalue = [0, 4, 16, 70, 12, 0]", fillcolor="#83c1ef"] ;
47 -> 51 ;
52 [label="entropy = 1.014\nsamples = 30\nvalue = [0, 4, 3, 23, 0, 0]", fillcolor="#6eb7ec"] ;
51 -> 52 ;
53 [label="entropy = 1.278\nsamples = 72\nvalue = [0, 0, 13, 47, 12, 0]", fillcolor="#8dc7f0"] ;
51 -> 53 ;
54 [label="alcohol <= 12.85\nentropy = 1.447\nsamples = 130\nvalue = [0, 0, 4, 51, 66, 9]", fillcolor="#e7d9fa"] ;
46 -> 54 ;
55 [label="volatile acidity <= 0.425\nentropy = 1.216\nsamples = 106\nvalue = [0, 0, 0, 44, 57, 5]", fillcolor="#e5d5fa"] ;
54 -> 55 ;
56 [label="entropy = 1.223\nsamples = 63\nvalue = [0, 0, 0, 18, 40, 5]", fillcolor="#c19ef2"] ;
55 -> 56 ;
57 [label="entropy = 0.968\nsamples = 43\nvalue = [0, 0, 0, 26, 17, 0]", fillcolor="#baddf6"] ;
55 -> 57 ;
58 [label="sulphates <= 0.845\nentropy = 1.911\nsamples = 24\nvalue = [0, 0, 4, 7, 9, 4]", fillcolor="#f0e8fc"] ;
54 -> 58 ;
59 [label="entropy = 1.873\nsamples = 17\nvalue = [0, 0, 4, 7, 2, 4]", fillcolor="#d1e8f9"] ;
58 -> 59 ;
60 [label="entropy = 0.0\nsamples = 7\nvalue = [0, 0, 0, 0, 7, 0]", fillcolor="#8139e5"] ;
58 -> 60 ;
}